digraph Tree {
node [shape=box] ;
0 [label="az_freq_0.0_Hz_ws_40 <= -1.911\ngini = 0.6314\nsamples = 23\nvalue = [3, 1, 8, 11]\nclass = label_walk"] ;
1 [label="Bx_freq_weighted <= -0.0745\ngini = 0.2722\nsamples = 13\nvalue = [0, 1, 1, 11]\nclass = label_walk"] ;
0 -> 1 [labeldistance=2.5, labelangle=45, headlabel="True"] ;
2 [label="Bz_freq_0.4_Hz_ws_40 <= 25.823\ngini = 0.625\nsamples = 4\nvalue = [0, 1, 1, 2]\nclass = label_walk"] ;
1 -> 2 ;
3 [label="gini = 0.0\nsamples = 2\nvalue = [0, 0, 0, 2]\nclass = label_walk"] ;
2 -> 3 ;
4 [label="gini = 0.5\nsamples = 2\nvalue = [0, 1, 1, 0]\nclass = label_run"] ;
2 -> 4 ;
5 [label="gini = 0.0\nsamples = 9\nvalue = [0, 0, 0, 9]\nclass = label_walk"] ;
1 -> 5 ;
6 [label="az_freq_0.0_Hz_ws_40 <= 0.1566\ngini = 0.42\nsamples = 10\nvalue = [3, 0, 7, 0]\nclass = label_stand"] ;
0 -> 6 [labeldistance=2.5, labelangle=-45, headlabel="False"] ;
7 [label="gini = 0.0\nsamples = 7\nvalue = [0, 0, 7, 0]\nclass = label_stand"] ;
6 -> 7 ;
8 [label="gini = 0.0\nsamples = 3\nvalue = [3, 0, 0, 0]\nclass = label_jump"] ;
6 -> 8 ;
}